=== PESOS INICIAIS ===
W1:
[[-0.00318701 -0.02052768  0.00734931 ...  0.016415    0.00819078
  -0.01026681]
 [ 0.00441911 -0.00012367 -0.00616884 ...  0.01095026  0.01751427
  -0.00679088]
 [-0.00488377  0.00055126  0.00239004 ...  0.00845202  0.00782068
  -0.02448391]
 ...
 [ 0.01549478  0.01317332  0.01053083 ... -0.00470695 -0.00451087
   0.00601694]
 [-0.00580946 -0.00957223 -0.00822714 ... -0.02437528  0.00729521
   0.00412571]
 [-0.02566431  0.00259727 -0.01278193 ... -0.00332054  0.00853689
   0.000973  ]]
W2:
[[-0.00201585 -0.02434591  0.01791864 ...  0.00148046 -0.01091429
  -0.01687149]
 [-0.00385781 -0.00128483 -0.01490178 ...  0.0147246   0.00045965
  -0.00634934]
 [-0.00865083  0.00077413  0.00290602 ...  0.00936933 -0.01052039
  -0.01357229]
 ...
 [ 0.00837105 -0.01192132 -0.00821983 ...  0.00783025  0.0053152
   0.01550634]
 [-0.00770875  0.00083599  0.00557119 ... -0.01912708  0.00220958
   0.00679629]
 [ 0.00412371  0.00054507  0.00419082 ... -0.00841732  0.01413015
  -0.00090422]]

=== PESOS FINAIS ===
W1:
[[-5.18426898e-05 -1.95730855e-02 -2.98361492e-02 ...  1.65150946e-02
   8.52256075e-03 -9.99384794e-03]
 [ 9.36367894e-03  5.96015205e-04 -1.36534340e-02 ...  7.62853596e-03
   1.82309092e-02 -9.43299601e-03]
 [ 1.18008976e-02  1.23972317e-03  9.66580029e-03 ...  4.58556297e-03
   9.63634279e-03 -2.40290172e-02]
 ...
 [ 3.47383054e-02  1.45825638e-02  1.43928231e-03 ... -9.94869489e-03
  -2.62726915e-03  2.07121708e-02]
 [ 6.87650939e-03 -8.30565914e-03  6.10423286e-03 ... -2.65118996e-02
   8.03897089e-03 -1.91034533e-02]
 [-2.64836979e-02  1.89337262e-03 -2.67126869e-02 ... -1.52088819e-03
   1.00322173e-02 -5.67670526e-02]]
W2:
[[ 0.01272808 -0.05946273  0.00199034 ...  0.01302468 -0.03410312
  -0.0144253 ]
 [-0.02271267 -0.01159812 -0.00138911 ...  0.02255304  0.00820591
  -0.02612209]
 [-0.15126473 -0.04619799  0.05503378 ... -0.01395519  0.03310714
   0.03488721]
 ...
 [-0.01214155 -0.02774385  0.00049372 ...  0.01898323  0.01386095
  -0.00610877]
 [-0.02903602 -0.01067217  0.02738557 ... -0.01123176  0.00984661
  -0.01497505]
 [ 0.03669764  0.05178219 -0.05213389 ... -0.07529215  0.06175564
  -0.07430171]]

