=== PESOS INICIAIS ===
W1:
[[-1.54133665e-02 -1.24363299e-02  1.98659512e-02 ...  7.41534387e-03
  -3.50014532e-03  2.09339195e-02]
 [ 9.67566967e-03 -4.03978912e-03 -5.16577615e-04 ... -1.18547320e-02
  -9.71412688e-03 -1.41498335e-04]
 [ 1.23473414e-02 -7.47875289e-03 -1.25319069e-02 ... -2.03718747e-03
  -5.89497623e-03 -1.01900808e-03]
 ...
 [-1.72091909e-02  6.82333533e-03 -8.70659964e-03 ... -2.67364936e-03
   7.75322560e-03 -5.45432483e-03]
 [ 5.03682664e-03  1.69266814e-02  3.50944264e-05 ...  7.23392768e-03
   1.21386599e-02 -7.44250604e-03]
 [ 1.54528489e-03  1.00807050e-02  2.29970261e-03 ... -1.49947464e-02
  -1.77440692e-03 -1.47350214e-03]]
W2:
[[ 0.01006597 -0.00127921  0.0056649  ... -0.01285425 -0.00556501
  -0.00094386]
 [ 0.00141486 -0.0162655   0.02363806 ... -0.00880491  0.01361124
   0.00502924]
 [ 0.00699284 -0.00345967  0.00101848 ...  0.00481743 -0.01432459
   0.00702312]
 ...
 [ 0.0022722  -0.0069523  -0.00147462 ... -0.01584234 -0.0014225
  -0.01483891]
 [-0.01182931  0.01032656 -0.00665668 ... -0.00751611  0.00739867
   0.00140666]
 [-0.01287917  0.01302252 -0.00746645 ...  0.00360781  0.00851081
   0.00427176]]

